6 200
в 0.000638451 -0.0012029 0.00232616 0.000709085 0.00145229 -0.000222623 0.00224577 -0.00138553 -0.00112824 -0.00132662 0.00156788 -5.66812e-05 0.00242975 0.00109102 1.5561e-05 0.00103819 -0.00138321 0.000619513 -0.00198704 0.00153118 -0.000773584 0.00253702 0.000394176 0.00237031 -0.000202837 -0.00149303 0.000241887 0.000483972 5.92251e-05 0.00149238 0.000311003 0.00179893 0.00211859 0.000463808 0.00206786 0.00221179 0.000513688 0.00208029 -0.00146065 0.00057766 0.00139769 -0.00145994 0.00218468 -0.000941164 0.00174209 -0.000525064 0.00218942 -0.00150265 -0.00171576 -0.00185437 0.000874145 0.000357111 -0.000315302 -0.000884392 -0.00223643 0.000604924 -0.00231321 -0.000516029 0.00175702 0.00167312 -0.00157324 0.000284335 0.000640255 0.00138557 -0.0021546 0.00253048 -0.000505996 -0.000342403 -0.00218233 0.00175588 0.000947007 0.00114596 0.00218576 -0.000239386 -0.000762652 0.00220878 0.00223817 0.00226398 -0.000850842 -0.00171168 0.00218915 0.000515088 -0.00202284 0.00214192 0.00141438 -0.000715275 0.000703184 0.000646811 0.00189213 -0.00059257 0.00187436 0.00165777 -0.000968627 0.000804372 0.00131784 0.0019348 -0.000843186 0.00226273 0.00222006 -0.00167989 0.000376776 0.000727807 0.000610892 0.00182417 0.00132069 -0.00229424 0.00121751 -0.000179477 -0.00131298 -0.00117096 0.000630634 -0.00183672 -0.000145236 -0.00146905 -0.000281648 0.000747253 0.00126303 -0.00130701 -0.000307019 -0.000838884 0.000152178 -0.00139092 -0.000969336 -0.000209533 0.00112039 0.00159584 -0.000560895 0.00192266 -0.00176781 0.000846076 0.00119917 0.00115456 0.00141022 -0.00148345 -0.00141465 -0.00120407 0.000147408 0.00195959 0.000296211 0.00137891 0.00192034 -0.00180892 -0.00234585 -0.00132823 0.00171896 -0.000935433 0.000726275 0.0010879 0.00110469 -0.00205186 0.000842208 -8.04347e-05 -0.00051742 0.00122642 -0.00063831 0.00203776 -0.00241422 -0.00190739 -0.000860999 0.00136833 -0.0019097 -0.000836577 -0.000848905 0.000478515 5.81513e-05 0.000725274 -0.000767235 0.00162869 -0.00106171 -0.00014958 0.00102474 0.00210977 -0.00213515 0.00204099 -0.00170851 0.000235999 0.00135103 0.00214687 0.00198047 -0.000189216 -0.00120016 -0.00228994 -0.00218859 0.00108919 -0.00183264 -0.000578183 -0.00163847 -0.00182666 -0.000723211 0.00198644 0.00219459 0.00205126 -0.000818781 -0.00121008 0.00141255 0.000884689 -0.000304263 -0.00148073 -0.00131651 -0.00188914
и -0.000315927 -0.000215423 -0.0020642 0.00192317 -0.00139216 -0.00144556 -0.00182789 0.000114668 -0.00119826 -0.00142772 -0.000758494 -0.0012907 0.00248383 0.00219682 -0.000109576 -0.00152803 -0.000892914 -0.000733996 0.00146218 -0.0017877 -0.000876559 0.000169698 -0.00174575 -0.00080103 -0.00254916 0.00198619 -0.00164133 0.00157098 0.00211685 -0.00202649 -0.00239803 0.00121707 0.000778631 0.00112472 -0.0019656 -0.000395214 -0.00120368 -0.00170331 -0.000385174 -0.000394201 0.000164655 0.00164879 -0.00193001 0.00239408 0.000578398 0.000934066 0.000681476 -0.000881369 -0.000182816 -0.0019995 -0.00137543 -0.000715617 -0.00228386 0.00153763 0.000693051 -0.00198997 -0.000701337 0.00231171 0.000184651 0.00121804 -0.00223506 0.000319099 -0.0014744 -0.00208023 -0.0014983 -0.00097315 0.00121798 0.0012797 -0.000189181 -0.000506279 1.88681e-05 -0.00219065 -0.000375902 -0.00221591 -0.00136967 -0.00158089 -0.00143202 -0.00134868 0.00125823 -0.000745498 0.000411002 0.00197575 0.000452063 -0.00184658 0.000959954 0.00250034 -0.00242333 0.000473035 2.51007e-05 0.00212682 -0.00013153 -0.00256903 0.000639072 -0.000236848 -0.00121279 -0.00190987 -0.00236792 0.00128463 -0.000680994 0.000236074 0.00226447 0.0006013 -0.00250496 -0.000232374 0.00131383 0.00188274 -0.000146255 -0.00238173 0.00242586 0.000376839 -0.000153538 0.00247126 -0.000325294 0.000255176 -0.00219506 -0.000780854 0.000313314 -0.000188009 -0.00145799 0.00259957 -0.000150565 -0.000747335 0.0021772 -0.00209827 -0.000282126 -0.00124281 0.00173696 0.00224044 0.0025259 0.000481406 0.00245499 -0.00189479 -0.00245296 0.000748955 0.00042854 0.00124061 -0.000860737 0.000641336 -0.000310531 -0.000871413 -0.000171241 0.00046863 0.00130821 0.000951855 -0.000207906 -0.000148863 -0.000557398 3.06849e-05 0.00105025 0.00212645 0.000500903 -0.000991713 -0.00264735 -0.00247071 0.00046001 -0.00136244 0.00231983 0.00137384 -0.00186323 -0.000588872 -0.000789016 -0.00200344 -0.00194685 -2.95255e-05 -0.000204237 -0.0013031 -0.00253671 -0.000529781 -0.0010051 -0.00125877 0.000305518 0.00032059 -0.00235777 -0.00165313 0.000695466 0.00210062 -0.000241919 -0.000953968 -0.000265992 -0.00261955 -0.000973295 -0.000862125 0.00194389 0.00175639 -0.00185656 -0.00128923 0.00153418 0.00118711 0.00186437 0.000109034 -0.00244434 -0.00210168 0.0019369 -0.000703729 -0.000850706 -0.000143392 0.00219489 0.000964288 0.00136362 0.00165182
Ч 0.00141315 -0.000531649 -0.0010865 -0.000560624 0.00241442 -0.000711612 0.00199053 -0.00110915 8.131e-05 -0.00108591 -0.00189051 -0.00194442 0.00181377 -0.00133589 -0.00148995 -0.00102749 -0.00193101 0.00206193 0.00118841 0.00101945 0.00114243 -0.000464384 0.00125119 -0.000911816 -0.00197988 -0.000864194 -0.00132271 -0.000417224 -0.00145766 -0.0011163 0.00184059 -4.93504e-05 0.00191986 -0.00222234 -0.000441997 -0.0005818 -0.000623754 -0.0017246 0.00168541 6.70785e-05 0.000383544 -0.00230748 -0.0022868 -0.00231015 0.000174869 -0.000485573 -0.00195616 0.000553657 -0.00219345 -0.00239557 0.00170051 0.00151173 -0.00242598 -0.00049672 -0.000354909 0.00122663 0.00202568 -0.0016027 -0.001081 0.000559933 0.000265317 0.0021932 -0.00208051 -9.84653e-05 0.00120963 0.0022736 -0.000916788 0.00178667 0.00201043 -0.0017189 0.00098442 -0.00185275 0.00128068 4.89825e-05 -0.00049304 -0.00241998 -0.000828744 0.00248089 -0.000633476 0.00208048 9.88019e-05 -0.00114776 0.000806882 0.000380149 -0.0010582 0.0020617 -0.00216624 0.00185379 0.00236921 -0.00126395 0.00222743 -0.00175017 0.00116136 0.00116264 0.00173392 0.000326348 0.00113208 -0.00115889 0.000579718 0.00235853 -0.00225573 -0.00159546 0.000351953 -0.000346138 -0.000204278 2.41571e-05 0.00210592 -0.00122114 0.00207934 0.000960954 -9.06312e-05 0.000888554 0.00114576 -0.000786828 0.00193225 0.000948937 -0.000673136 0.00243708 -0.000270359 0.000351487 -0.000587449 0.0022734 -0.000476055 0.000122765 -0.00137041 -0.00109667 -0.000969462 0.00182099 -0.00203293 0.000118119 0.00143155 -0.00190271 -0.00140116 -0.0016483 0.000415936 0.000114864 0.00248594 -0.00211364 -0.000780996 -7.78491e-05 -0.00192818 0.0019559 -0.00111869 0.00234246 0.00208604 -0.00048306 0.000537318 0.00143657 -0.0020199 0.000485484 0.00195462 -0.00141483 -0.000861725 -0.00229033 0.00188707 -0.000499371 0.000651232 0.00186477 -0.000191623 2.74948e-05 -0.000508609 0.000901913 -0.00179091 -0.00175037 0.00120131 0.00144006 -0.00203257 -6.51517e-05 0.00231502 -6.64394e-06 -0.00186831 -0.00171018 -0.00158857 0.0023808 -0.00138632 0.00106876 0.000735458 -0.000714346 -0.00229937 -0.000346653 0.00217346 0.00188883 -0.00201188 -0.0015408 0.001498 -0.00123176 0.00198459 0.000912552 0.00212294 -0.000610974 0.00019225 0.00116228 0.00146548 -0.0023839 -0.00205814 0.0020835 0.00123784 0.000490123 -0.00125676 0.00215052
с -0.000955129 0.000699416 -0.00235236 -0.00116269 0.00139774 -0.00232622 -0.00226506 -0.00119206 0.00137862 0.00195598 0.00197888 0.000471602 0.00104735 -0.00241653 -0.00156214 -0.00166022 0.00141701 -0.000650758 0.000382091 0.00123399 0.000530305 -0.000980342 0.000429475 0.000373954 -0.00235629 -0.000576248 0.00114064 -0.000249854 -0.00176468 -4.48615e-05 -0.00191362 -0.00126529 8.53223e-06 0.000870783 -0.00196997 5.64726e-05 0.0010061 -0.00237851 -0.00182224 -0.00219818 -0.0023937 0.00241553 -0.00242767 -0.00178804 0.00121436 0.000251434 0.000779715 -0.00184638 -0.00248786 0.00113892 -0.000834198 -0.000379354 -0.00206534 0.000491779 0.000782053 -0.00193269 0.000809928 -0.000758415 -0.000564608 0.000506698 -0.000592598 -0.000549817 -0.000278781 0.00110104 0.000476325 0.000321995 -0.00159916 0.000127203 0.000716914 0.000146546 -0.000260468 0.000870735 -7.65198e-05 -0.00057289 -0.00153278 0.000130575 -0.000155358 -0.00136968 0.00157227 -0.00235514 -0.00186738 -0.00227092 -0.000604686 0.000672631 -0.00070502 0.00197639 0.00102787 0.00203824 -0.00155582 0.0024104 0.00150685 -0.00220235 0.000874757 -9.73518e-05 -0.000325605 -0.00205796 -0.00176811 -0.000640635 -0.000534141 0.00222736 0.000719632 -0.000895887 0.00234002 0.000836595 -0.00183403 -0.00157898 0.000402028 -0.000802851 -0.00038971 -0.00154297 0.00229241 0.00143152 -0.0011832 0.000277957 0.00206279 -0.000131705 -0.00200215 0.00193558 -0.00157976 0.00143443 0.00124382 0.000483875 -0.00201838 -0.000169341 0.00157925 -0.00176142 0.00233427 0.00224243 0.00127743 -0.00202925 -0.00235963 0.00165985 0.00143351 -0.00158897 0.000561502 0.00247488 0.00159106 -0.00139626 -0.000605955 0.000347938 0.0013629 0.000340393 0.000509898 0.00118516 0.000354885 0.000720304 -0.00134551 -5.65748e-05 0.000507515 0.000837432 0.000376198 0.000690999 -0.00203262 -0.00176002 -0.00099588 -0.0021161 -0.0011464 0.00183035 0.00172405 0.002437 0.00057699 0.00112172 -0.000126514 0.00234562 0.000513026 -0.00233726 0.000885476 0.000886617 0.000849811 -0.00201667 0.00124235 -0.00165684 0.00159512 0.00237717 -0.00139337 -0.00208247 -0.000794504 -0.000697214 0.00140648 0.0012671 0.00126473 -0.000623234 0.000104952 -0.000648016 -0.000975273 0.00213215 8.14383e-05 -0.00136677 -0.00170014 -0.00229912 -0.00164258 0.0015873 -0.00103361 0.000727332 0.00235769 -0.00133836 0.0022495 0.00100242 -0.0012551 -0.00082629
сеть -0.000861774 -0.00134844 -0.00161325 0.000572605 0.00136537 0.0016398 0.00207999 0.000157932 -0.0011037 0.000255943 0.00126395 -0.00120836 0.00183721 0.000219897 0.00177282 0.000748632 0.00185146 -0.00117442 -0.000143448 0.0013285 0.000579261 -0.00141907 0.00155552 -1.15808e-05 -0.000685371 -0.0020912 0.00215894 -0.00107317 -0.000720637 0.00091662 0.000887877 0.000257634 0.00175046 -0.00244181 -0.00135038 -0.00132843 0.00187582 -0.00145404 0.000431422 0.00152974 0.00121852 -0.002454 -0.00140152 0.00186426 -0.000823084 -0.000346516 0.00150958 -0.001179 0.00114551 -0.000715206 -0.00127569 0.000766048 -0.000553053 0.0020513 0.00139034 -0.00129416 0.000868044 0.00233519 -0.00208653 0.00148745 -0.000438902 0.00114799 -0.00178174 0.00201367 -0.002265 0.00020258 -0.000504042 -0.0019459 0.00226157 -0.000705406 0.0018004 0.000604471 0.00141955 -0.000743856 0.00178456 -0.00179961 8.43288e-05 0.000910494 -0.00103143 7.70138e-05 -0.00158025 -0.00181371 -0.000246895 -0.002371 -0.00082462 0.00179617 0.00213937 0.00160483 0.000339415 0.00209947 -0.00176734 -0.000375854 -0.000397891 -0.00154657 -0.00210646 -0.00221909 -0.00136402 -0.00202679 -0.000919329 -0.000633607 0.000419391 -0.00199816 0.00135746 0.00113804 -0.00234289 8.54627e-05 -0.00205472 6.43788e-05 -0.00118142 -0.000620533 -0.000531584 -0.00127433 0.00197473 -0.00186591 -0.00179195 0.000998519 0.00172863 0.00127016 -0.00101883 0.002383 0.00216971 -0.000252063 0.00136328 0.00138463 0.00192001 -0.00230749 0.00143246 -0.000872584 0.00119366 -0.00108263 0.00214805 0.001313 -0.000570229 -0.000226701 -0.000436308 0.000328535 0.000598243 -0.000152803 -0.00130505 0.00118846 -5.81214e-05 -5.59178e-05 -0.000426144 -0.000513647 0.000367656 0.00199425 -0.000758371 -0.00217071 -0.000526701 0.000233387 -0.00221424 -0.00203813 0.00112605 -0.0024925 -0.000837602 -8.36989e-05 0.00137971 0.00143385 -0.0011752 0.000515691 0.00018596 -0.00113501 0.00160733 0.00122505 -0.00222672 1.59357e-05 -0.0017923 0.000691849 -0.000456118 -9.41239e-05 0.00177449 0.00217726 0.00157631 0.00105123 0.00241274 0.000644269 0.00238323 0.00156064 -0.000760491 0.00197472 -0.00236646 -0.000163709 0.000177829 -0.000386022 0.00202813 0.0020963 -0.00185366 0.00211267 0.00227431 0.0017891 0.000261942 -0.00195711 -0.00177431 -0.00206104 -0.00163317 0.00172001 0.000961389 -0.00229428 -1.19354e-05 -0.000199852
сети -0.00057459 0.00176557 -0.000549676 0.00117842 0.00135199 -0.00238263 0.000316348 -0.00222193 0.00100579 -0.00253477 -0.00104027 -0.00169447 -0.000608314 -0.000563652 0.000407471 0.00145602 -0.0016982 -0.000682258 0.00225051 0.00189323 1.72565e-06 0.00202422 -0.00125597 -0.00218562 -0.00199869 0.00115566 0.000881667 0.00114879 0.000715476 0.000977898 -0.00116618 -0.000867661 0.0020204 -0.00244889 -0.0016022 0.00051862 -0.00185221 0.00250899 0.00198646 -0.00205683 0.00206331 0.000974397 0.00142887 0.00190821 0.00196941 0.000102018 0.000290978 0.0021718 -0.000806677 -0.00122557 7.57757e-05 -0.000195787 0.000709329 -0.000158863 0.00066689 -0.00252653 0.00107864 0.00225906 -0.000910626 0.00164016 -0.000997707 -0.0018569 -0.000955944 0.00170252 -0.00186424 0.00254167 0.00134562 0.000373437 -0.00168055 -0.00246109 0.00143781 0.00100942 0.000843847 0.00206065 -0.00206466 0.00103235 -0.000859739 0.00186928 0.00176952 0.00104897 0.00229769 0.000998091 0.00188396 0.00035668 -0.00029264 0.000482398 0.00162779 -0.00250698 -0.000905538 0.00187514 0.00222312 0.000184414 0.000893639 -0.00240251 0.0015656 -0.00230663 0.000664036 0.000538811 -8.05487e-05 0.00157794 -0.000501402 -0.000665192 0.000415753 -0.00123962 0.000989617 0.00130041 0.00228461 -0.00246592 2.85882e-05 0.000468287 -0.00150939 -0.00143897 -0.000939684 0.00138096 0.00246261 0.001384 0.00240509 0.000894387 -0.000772874 0.00218149 0.000319291 0.00100913 0.00188347 0.0012723 -0.000407445 0.000596903 -0.00160642 0.00234283 0.00254159 0.00136182 0.000232763 -0.00166444 0.000299639 0.000294396 -0.00126104 0.00163222 0.00164553 -0.000558799 0.00212938 0.00229348 0.00207766 0.00092018 -0.000658934 0.00183325 0.00216506 0.000235953 -0.00106982 -0.000304105 -0.00216926 0.000349787 -0.000842471 -0.00226302 -0.00253611 -0.00167661 0.00225073 0.00128278 -0.000864894 -0.000882693 -0.000727544 -0.00123618 0.00145431 0.00200147 -0.00142621 0.00201237 -0.00110371 -0.00105996 0.00185182 9.99566e-05 0.00252232 0.0013715 -0.000874444 0.00105937 0.00085232 -0.000206515 -0.00174334 0.000588492 -0.00187019 0.00124608 -0.00118978 -0.00230981 0.00241678 -0.000831626 -0.00133632 -7.25117e-06 -0.00132607 -0.00243532 4.07062e-05 5.18437e-05 9.02914e-05 0.00170031 0.000505616 0.000395545 0.00218525 -0.000355903 -0.000233977 0.000496226 0.00137121 0.000814846 0.000146528 0.00152829
